<?xml version="1.0"?>
<opencv_storage>
<cascade>
  <stageType>BOOST</stageType>
  <featureType>HAAR</featureType>
  <height>24</height>
  <width>24</width>
  <stageParams>
    <boostType>GAB</boostType>
    <minHitRate>9.9500000476837158e-01</minHitRate>
    <maxFalseAlarm>5.0000000000000000e-01</maxFalseAlarm>
    <weightTrimRate>9.4999998807907104e-01</weightTrimRate>
    <maxDepth>1</maxDepth>
    <maxWeakCount>100</maxWeakCount></stageParams>
  <featureParams>
    <maxCatCount>0</maxCatCount>
    <featSize>1</featSize>
    <mode>BASIC</mode></featureParams>
  <stageNum>10</stageNum>
  <stages>
    <!-- stage 0 -->
    <_>
      <maxWeakCount>3</maxWeakCount>
      <stageThreshold>-1.3108913898468018e+00</stageThreshold>
      <weakClassifiers>
        <_>
          <internalNodes>
            0 -1 16 5.9689022600650787e-02</internalNodes>
          <leafValues>
            -9.8119121789932251e-01 7.4193549156188965e-01</leafValues></_>
        <_>
          <internalNodes>
            0 -1 7 3.1761467456817627e-01</internalNodes>
          <leafValues>
            -9.3002134561538696e-01 9.1199022531509399e-01</leafValues></_>
        <_>
          <internalNodes>
            0 -1 2 2.0555256307125092e-01</internalNodes>
          <leafValues>
            -1. 6.0032117366790771e-01</leafValues></_></weakClassifiers></_>
    <!-- stage 1 -->
    <_>
      <maxWeakCount>3</maxWeakCount>
      <stageThreshold>-1.1020114421844482e+00</stageThreshold>
      <weakClassifiers>
        <_>
          <internalNodes>
            0 -1 1 -6.1355322599411011e-02</internalNodes>
          <leafValues>
            9.1304349899291992e-01 -9.5107030868530273e-01</leafValues></_>
        <_>
          <internalNodes>
            0 -1 10 4.3984133005142212e-01</internalNodes>
          <leafValues>
            -9.4602102041244507e-01 7.6524823904037476e-01</leafValues></_>
        <_>
          <internalNodes>
            0 -1 15 1.8079143017530441e-02</internalNodes>
          <leafValues>
            -9.1618931293487549e-01 8.2328635454177856e-01</leafValues></_></weakClassifiers></_>
    <!-- stage 2 -->
    <_>
      <maxWeakCount>3</maxWeakCount>
      <stageThreshold>-1.3129273653030396e+00</stageThreshold>
      <weakClassifiers>
        <_>
          <internalNodes>
            0 -1 14 -7.7389121055603027e-02</internalNodes>
          <leafValues>
            4.8387095332145691e-01 -9.5611286163330078e-01</leafValues></_>
        <_>
          <internalNodes>
            0 -1 8 3.3082836866378784e-01</internalNodes>
          <leafValues>
            -9.2356818914413452e-01 6.7088609933853149e-01</leafValues></_>
        <_>
          <internalNodes>
            0 -1 11 9.6363730728626251e-02</internalNodes>
          <leafValues>
            -9.4111162424087524e-01 5.6675374507904053e-01</leafValues></_></weakClassifiers></_>
    <!-- stage 3 -->
    <_>
      <maxWeakCount>3</maxWeakCount>
      <stageThreshold>-1.4071742296218872e+00</stageThreshold>
      <weakClassifiers>
        <_>
          <internalNodes>
            0 -1 18 -7.4176982045173645e-02</internalNodes>
          <leafValues>
            3.7142857909202576e-01 -9.6190476417541504e-01</leafValues></_>
        <_>
          <internalNodes>
            0 -1 25 2.1673966199159622e-02</internalNodes>
          <leafValues>
            -8.9092773199081421e-01 6.6631317138671875e-01</leafValues></_>
        <_>
          <internalNodes>
            0 -1 3 1.1137762665748596e-01</internalNodes>
          <leafValues>
            -9.4894099235534668e-01 4.4565826654434204e-01</leafValues></_></weakClassifiers></_>
    <!-- stage 4 -->
    <_>
      <maxWeakCount>2</maxWeakCount>
      <stageThreshold>-3.9878442883491516e-01</stageThreshold>
      <weakClassifiers>
        <_>
          <internalNodes>
            0 -1 20 -5.9421651065349579e-02</internalNodes>
          <leafValues>
            7.1428573131561279e-01 -9.2705166339874268e-01</leafValues></_>
        <_>
          <internalNodes>
            0 -1 12 5.9003915637731552e-02</internalNodes>
          <leafValues>
            -9.6791291236877441e-01 5.2826720476150513e-01</leafValues></_></weakClassifiers></_>
    <!-- stage 5 -->
    <_>
      <maxWeakCount>2</maxWeakCount>
      <stageThreshold>-1.2749142944812775e-01</stageThreshold>
      <weakClassifiers>
        <_>
          <internalNodes>
            0 -1 17 -1.3311725109815598e-02</internalNodes>
          <leafValues>
            8.4615385532379150e-01 -9.6296298503875732e-01</leafValues></_>
        <_>
          <internalNodes>
            0 -1 24 -1.8621992319822311e-02</internalNodes>
          <leafValues>
            8.3547151088714600e-01 -9.2675393819808960e-01</leafValues></_></weakClassifiers></_>
    <!-- stage 6 -->
    <_>
      <maxWeakCount>3</maxWeakCount>
      <stageThreshold>-1.0902653932571411e+00</stageThreshold>
      <weakClassifiers>
        <_>
          <internalNodes>
            0 -1 23 -2.8251264244318008e-02</internalNodes>
          <leafValues>
            1. -8.9910978078842163e-01</leafValues></_>
        <_>
          <internalNodes>
            0 -1 19 -4.7077689319849014e-02</internalNodes>
          <leafValues>
            6.0206323862075806e-01 -8.1821227073669434e-01</leafValues></_>
        <_>
          <internalNodes>
            0 -1 0 8.6697235703468323e-02</internalNodes>
          <leafValues>
            -7.9321885108947754e-01 6.7950809001922607e-01</leafValues></_></weakClassifiers></_>
    <!-- stage 7 -->
    <_>
      <maxWeakCount>3</maxWeakCount>
      <stageThreshold>-1.3736869096755981e+00</stageThreshold>
      <weakClassifiers>
        <_>
          <internalNodes>
            0 -1 9 -2.6133633218705654e-03</internalNodes>
          <leafValues>
            7.7777779102325439e-01 -9.1566264629364014e-01</leafValues></_>
        <_>
          <internalNodes>
            0 -1 22 -6.3219475559890270e-03</internalNodes>
          <leafValues>
            4.7693505883216858e-01 -8.8469767570495605e-01</leafValues></_>
        <_>
          <internalNodes>
            0 -1 4 -3.7595559842884541e-04</internalNodes>
          <leafValues>
            -1. 4.2667344212532043e-01</leafValues></_></weakClassifiers></_>
    <!-- stage 8 -->
    <_>
      <maxWeakCount>2</maxWeakCount>
      <stageThreshold>-5.1364392042160034e-01</stageThreshold>
      <weakClassifiers>
        <_>
          <internalNodes>
            0 -1 6 -1.5431012958288193e-02</internalNodes>
          <leafValues>
            8.8235294818878174e-01 -9.1591590642929077e-01</leafValues></_>
        <_>
          <internalNodes>
            0 -1 21 3.7324556615203619e-05</internalNodes>
          <leafValues>
            -9.7823959589004517e-01 4.0227201581001282e-01</leafValues></_></weakClassifiers></_>
    <!-- stage 9 -->
    <_>
      <maxWeakCount>2</maxWeakCount>
      <stageThreshold>-6.9356161355972290e-01</stageThreshold>
      <weakClassifiers>
        <_>
          <internalNodes>
            0 -1 13 7.3802219703793526e-03</internalNodes>
          <leafValues>
            -9.1489362716674805e-01 5.2380955219268799e-01</leafValues></_>
        <_>
          <internalNodes>
            0 -1 5 3.3360723406076431e-02</internalNodes>
          <leafValues>
            -9.4671177864074707e-01 2.2133199870586395e-01</leafValues></_></weakClassifiers></_></stages>
  <features>
    <_>
      <rects>
        <_>
          0 1 24 8 -1.</_>
        <_>
          0 5 24 4 2.</_></rects>
      <tilted>0</tilted></_>
    <_>
      <rects>
        <_>
          0 2 6 20 -1.</_>
        <_>
          2 2 2 20 3.</_></rects>
      <tilted>0</tilted></_>
    <_>
      <rects>
        <_>
          0 4 24 18 -1.</_>
        <_>
          8 4 8 18 3.</_></rects>
      <tilted>0</tilted></_>
    <_>
      <rects>
        <_>
          0 8 24 15 -1.</_>
        <_>
          0 13 24 5 3.</_></rects>
      <tilted>0</tilted></_>
    <_>
      <rects>
        <_>
          0 15 1 9 -1.</_>
        <_>
          0 18 1 3 3.</_></rects>
      <tilted>0</tilted></_>
    <_>
      <rects>
        <_>
          0 19 24 1 -1.</_>
        <_>
          8 19 8 1 3.</_></rects>
      <tilted>0</tilted></_>
    <_>
      <rects>
        <_>
          1 0 4 6 -1.</_>
        <_>
          1 0 2 3 2.</_>
        <_>
          3 3 2 3 2.</_></rects>
      <tilted>0</tilted></_>
    <_>
      <rects>
        <_>
          1 1 21 21 -1.</_>
        <_>
          8 1 7 21 3.</_></rects>
      <tilted>0</tilted></_>
    <_>
      <rects>
        <_>
          1 1 21 22 -1.</_>
        <_>
          8 1 7 22 3.</_></rects>
      <tilted>0</tilted></_>
    <_>
      <rects>
        <_>
          1 5 2 1 -1.</_>
        <_>
          2 5 1 1 2.</_></rects>
      <tilted>0</tilted></_>
    <_>
      <rects>
        <_>
          2 0 22 24 -1.</_>
        <_>
          2 8 22 8 3.</_></rects>
      <tilted>0</tilted></_>
    <_>
      <rects>
        <_>
          2 1 4 21 -1.</_>
        <_>
          2 8 4 7 3.</_></rects>
      <tilted>0</tilted></_>
    <_>
      <rects>
        <_>
          2 2 6 18 -1.</_>
        <_>
          5 2 3 18 2.</_></rects>
      <tilted>0</tilted></_>
    <_>
      <rects>
        <_>
          2 3 2 6 -1.</_>
        <_>
          2 3 1 3 2.</_>
        <_>
          3 6 1 3 2.</_></rects>
      <tilted>0</tilted></_>
    <_>
      <rects>
        <_>
          2 17 17 6 -1.</_>
        <_>
          2 20 17 3 2.</_></rects>
      <tilted>0</tilted></_>
    <_>
      <rects>
        <_>
          2 19 8 2 -1.</_>
        <_>
          6 19 4 2 2.</_></rects>
      <tilted>0</tilted></_>
    <_>
      <rects>
        <_>
          3 2 2 21 -1.</_>
        <_>
          3 9 2 7 3.</_></rects>
      <tilted>0</tilted></_>
    <_>
      <rects>
        <_>
          3 15 1 9 -1.</_>
        <_>
          3 18 1 3 3.</_></rects>
      <tilted>0</tilted></_>
    <_>
      <rects>
        <_>
          4 17 16 6 -1.</_>
        <_>
          4 20 16 3 2.</_></rects>
      <tilted>0</tilted></_>
    <_>
      <rects>
        <_>
          4 19 16 4 -1.</_>
        <_>
          4 21 16 2 2.</_></rects>
      <tilted>0</tilted></_>
    <_>
      <rects>
        <_>
          5 0 17 6 -1.</_>
        <_>
          5 2 17 2 3.</_></rects>
      <tilted>0</tilted></_>
    <_>
      <rects>
        <_>
          7 22 1 2 -1.</_>
        <_>
          7 23 1 1 2.</_></rects>
      <tilted>0</tilted></_>
    <_>
      <rects>
        <_>
          14 19 8 1 -1.</_>
        <_>
          18 19 4 1 2.</_></rects>
      <tilted>0</tilted></_>
    <_>
      <rects>
        <_>
          18 20 6 4 -1.</_>
        <_>
          18 20 3 2 2.</_>
        <_>
          21 22 3 2 2.</_></rects>
      <tilted>0</tilted></_>
    <_>
      <rects>
        <_>
          20 2 4 10 -1.</_>
        <_>
          20 2 2 5 2.</_>
        <_>
          22 7 2 5 2.</_></rects>
      <tilted>0</tilted></_>
    <_>
      <rects>
        <_>
          20 3 1 18 -1.</_>
        <_>
          20 9 1 6 3.</_></rects>
      <tilted>0</tilted></_></features></cascade>
</opencv_storage>
